<?xml version="1.0"?>
<opencv_storage>
<cascade>
  <stageType>BOOST</stageType>
  <featureType>HAAR</featureType>
  <height>24</height>
  <width>24</width>
  <stageParams>
    <boostType>GAB</boostType>
    <minHitRate>9.9500000476837158e-01</minHitRate>
    <maxFalseAlarm>5.0000000000000000e-01</maxFalseAlarm>
    <weightTrimRate>9.4999999999999996e-01</weightTrimRate>
    <maxDepth>1</maxDepth>
    <maxWeakCount>100</maxWeakCount></stageParams>
  <featureParams>
    <maxCatCount>0</maxCatCount>
    <featSize>1</featSize>
    <mode>BASIC</mode></featureParams>
  <stageNum>14</stageNum>
  <stages>
    <!-- stage 0 -->
    <_>
      <maxWeakCount>4</maxWeakCount>
      <stageThreshold>-1.9127453565597534e+00</stageThreshold>
      <weakClassifiers>
        <_>
          <internalNodes>
            0 -1 39 -2.8812337666749954e-02</internalNodes>
          <leafValues>
            8.1546288728713989e-01 -8.9320772886276245e-01</leafValues></_>
        <_>
          <internalNodes>
            0 -1 40 -1.0752145200967789e-02</internalNodes>
          <leafValues>
            6.9689857959747314e-01 -7.5935196876525879e-01</leafValues></_>
        <_>
          <internalNodes>
            0 -1 23 5.5633831769227982e-02</internalNodes>
          <leafValues>
            -6.8100053071975708e-01 5.6516766548156738e-01</leafValues></_>
        <_>
          <internalNodes>
            0 -1 77 5.3086718544363976e-03</internalNodes>
          <leafValues>
            -6.8618458509445190e-01 4.2081484198570251e-01</leafValues></_></weakClassifiers></_>
    <!-- stage 1 -->
    <_>
      <maxWeakCount>6</maxWeakCount>
      <stageThreshold>-2.5796964168548584e+00</stageThreshold>
      <weakClassifiers>
        <_>
          <internalNodes>
            0 -1 81 8.0934129655361176e-03</internalNodes>
          <leafValues>
            -8.2479000091552734e-01 5.9903430938720703e-01</leafValues></_>
        <_>
          <internalNodes>
            0 -1 58 -6.9875186309218407e-03</internalNodes>
          <leafValues>
            4.8941892385482788e-01 -7.9243910312652588e-01</leafValues></_>
        <_>
          <internalNodes>
            0 -1 14 6.6346317529678345e-02</internalNodes>
          <leafValues>
            -5.0083434581756592e-01 7.5169962644577026e-01</leafValues></_>
        <_>
          <internalNodes>
            0 -1 41 1.2071840465068817e-02</internalNodes>
          <leafValues>
            -8.6013370752334595e-01 3.9630353450775146e-01</leafValues></_>
        <_>
          <internalNodes>
            0 -1 134 -8.1489142030477524e-04</internalNodes>
          <leafValues>
            5.0722795724868774e-01 -4.9258807301521301e-01</leafValues></_>
        <_>
          <internalNodes>
            0 -1 52 1.3905691448599100e-03</internalNodes>
          <leafValues>
            -3.9076921343803406e-01 4.8008918762207031e-01</leafValues></_></weakClassifiers></_>
    <!-- stage 2 -->
    <_>
      <maxWeakCount>6</maxWeakCount>
      <stageThreshold>-2.0078525543212891e+00</stageThreshold>
      <weakClassifiers>
        <_>
          <internalNodes>
            0 -1 10 2.6520586013793945e-01</internalNodes>
          <leafValues>
            -7.2620624303817749e-01 7.3013716936111450e-01</leafValues></_>
        <_>
          <internalNodes>
            0 -1 98 5.9718238189816475e-03</internalNodes>
          <leafValues>
            -7.5268077850341797e-01 5.3286546468734741e-01</leafValues></_>
        <_>
          <internalNodes>
            0 -1 45 1.5917181968688965e-02</internalNodes>
          <leafValues>
            -8.2594358921051025e-01 3.8871875405311584e-01</leafValues></_>
        <_>
          <internalNodes>
            0 -1 74 2.9121272265911102e-02</internalNodes>
          <leafValues>
            -5.7422357797622681e-01 4.4582426548004150e-01</leafValues></_>
        <_>
          <internalNodes>
            0 -1 160 -1.4659101143479347e-03</internalNodes>
          <leafValues>
            5.1849836111068726e-01 -4.7390797734260559e-01</leafValues></_>
        <_>
          <internalNodes>
            0 -1 62 -2.5775320827960968e-03</internalNodes>
          <leafValues>
            3.2506179809570313e-01 -5.2732145786285400e-01</leafValues></_></weakClassifiers></_>
    <!-- stage 3 -->
    <_>
      <maxWeakCount>8</maxWeakCount>
      <stageThreshold>-2.3089225292205811e+00</stageThreshold>
      <weakClassifiers>
        <_>
          <internalNodes>
            0 -1 2 3.0321812629699707e-01</internalNodes>
          <leafValues>
            -6.9279247522354126e-01 7.5120514631271362e-01</leafValues></_>
        <_>
          <internalNodes>
            0 -1 168 -4.4865021482110023e-03</internalNodes>
          <leafValues>
            4.6173629164695740e-01 -7.0417702198028564e-01</leafValues></_>
        <_>
          <internalNodes>
            0 -1 97 1.9013924757018685e-03</internalNodes>
          <leafValues>
            -7.4637562036514282e-01 3.2838690280914307e-01</leafValues></_>
        <_>
          <internalNodes>
            0 -1 20 4.1453260928392410e-03</internalNodes>
          <leafValues>
            -7.9887354373931885e-01 2.8943997621536255e-01</leafValues></_>
        <_>
          <internalNodes>
            0 -1 89 -1.2588308891281486e-04</internalNodes>
          <leafValues>
            2.9000148177146912e-01 -6.1045593023300171e-01</leafValues></_>
        <_>
          <internalNodes>
            0 -1 72 4.1102282702922821e-02</internalNodes>
          <leafValues>
            -4.0921086072921753e-01 4.2447939515113831e-01</leafValues></_>
        <_>
          <internalNodes>
            0 -1 140 3.7447520298883319e-05</internalNodes>
          <leafValues>
            -7.6333725452423096e-01 1.8509273231029510e-01</leafValues></_>
        <_>
          <internalNodes>
            0 -1 132 -1.8990744138136506e-03</internalNodes>
          <leafValues>
            2.5322410464286804e-01 -5.7074123620986938e-01</leafValues></_></weakClassifiers></_>
    <!-- stage 4 -->
    <_>
      <maxWeakCount>10</maxWeakCount>
      <stageThreshold>-2.2646808624267578e+00</stageThreshold>
      <weakClassifiers>
        <_>
          <internalNodes>
            0 -1 163 -8.1553354859352112e-02</internalNodes>
          <leafValues>
            5.6348294019699097e-01 -6.4957845211029053e-01</leafValues></_>
        <_>
          <internalNodes>
            0 -1 80 2.6018754579126835e-03</internalNodes>
          <leafValues>
            -7.8023201227188110e-01 3.7221795320510864e-01</leafValues></_>
        <_>
          <internalNodes>
            0 -1 71 1.3068975880742073e-02</internalNodes>
          <leafValues>
            -4.9394461512565613e-01 4.7748017311096191e-01</leafValues></_>
        <_>
          <internalNodes>
            0 -1 122 -1.7876042984426022e-03</internalNodes>
          <leafValues>
            3.0231025815010071e-01 -7.1187901496887207e-01</leafValues></_>
        <_>
          <internalNodes>
            0 -1 75 -2.0470527932047844e-02</internalNodes>
          <leafValues>
            3.0642735958099365e-01 -6.2074458599090576e-01</leafValues></_>
        <_>
          <internalNodes>
            0 -1 70 -3.8531962782144547e-03</internalNodes>
          <leafValues>
            3.4550002217292786e-01 -5.2724868059158325e-01</leafValues></_>
        <_>
          <internalNodes>
            0 -1 156 -3.8833785220049322e-04</internalNodes>
          <leafValues>
            2.9466891288757324e-01 -5.7695317268371582e-01</leafValues></_>
        <_>
          <internalNodes>
            0 -1 95 1.1135911336168647e-03</internalNodes>
          <leafValues>
            -6.3679969310760498e-01 1.4430987834930420e-01</leafValues></_>
        <_>
          <internalNodes>
            0 -1 125 3.8614980876445770e-03</internalNodes>
          <leafValues>
            -6.6013240814208984e-01 1.7988488078117371e-01</leafValues></_>
        <_>
          <internalNodes>
            0 -1 181 1.0688665509223938e-01</internalNodes>
          <leafValues>
            -1.6965630650520325e-01 7.3491567373275757e-01</leafValues></_></weakClassifiers></_>
    <!-- stage 5 -->
    <_>
      <maxWeakCount>12</maxWeakCount>
      <stageThreshold>-2.2247500419616699e+00</stageThreshold>
      <weakClassifiers>
        <_>
          <internalNodes>
            0 -1 40 -1.3478668406605721e-02</internalNodes>
          <leafValues>
            2.4349203705787659e-01 -7.8981310129165649e-01</leafValues></_>
        <_>
          <internalNodes>
            0 -1 13 1.0265898704528809e-01</internalNodes>
          <leafValues>
            -4.9666526913642883e-01 5.7559216022491455e-01</leafValues></_>
        <_>
          <internalNodes>
            0 -1 42 3.3601913601160049e-02</internalNodes>
          <leafValues>
            -7.8169578313827515e-01 2.7662435173988342e-01</leafValues></_>
        <_>
          <internalNodes>
            0 -1 81 5.3487783297896385e-03</internalNodes>
          <leafValues>
            -6.1743938922882080e-01 3.2156714797019958e-01</leafValues></_>
        <_>
          <internalNodes>
            0 -1 107 5.9479000046849251e-03</internalNodes>
          <leafValues>
            -5.1540631055831909e-01 3.2247120141983032e-01</leafValues></_>
        <_>
          <internalNodes>
            0 -1 151 4.9477480351924896e-03</internalNodes>
          <leafValues>
            -7.3410910367965698e-01 2.1412996947765350e-01</leafValues></_>
        <_>
          <internalNodes>
            0 -1 26 3.4409239888191223e-02</internalNodes>
          <leafValues>
            -3.4164410829544067e-01 3.9974370598793030e-01</leafValues></_>
        <_>
          <internalNodes>
            0 -1 59 1.3940527569502592e-03</internalNodes>
          <leafValues>
            -6.6560769081115723e-01 1.7085842788219452e-01</leafValues></_>
        <_>
          <internalNodes>
            0 -1 172 -2.7361744287190959e-05</internalNodes>
          <leafValues>
            2.1471659839153290e-01 -4.6619075536727905e-01</leafValues></_>
        <_>
          <internalNodes>
            0 -1 121 8.9055709540843964e-03</internalNodes>
          <leafValues>
            1.6748571395874023e-01 -6.4352667331695557e-01</leafValues></_>
        <_>
          <internalNodes>
            0 -1 137 3.1104646041058004e-05</internalNodes>
          <leafValues>
            -7.2062975168228149e-01 1.1736679822206497e-01</leafValues></_>
        <_>
          <internalNodes>
            0 -1 131 -1.7276272410526872e-04</internalNodes>
          <leafValues>
            1.8463711440563202e-01 -4.4378107786178589e-01</leafValues></_></weakClassifiers></_>
    <!-- stage 6 -->
    <_>
      <maxWeakCount>14</maxWeakCount>
      <stageThreshold>-1.9818520545959473e+00</stageThreshold>
      <weakClassifiers>
        <_>
          <internalNodes>
            0 -1 4 1.1321887373924255e-01</internalNodes>
          <leafValues>
            -6.7498153448104858e-01 3.8439276814460754e-01</leafValues></_>
        <_>
          <internalNodes>
            0 -1 57 -3.0350373126566410e-03</internalNodes>
          <leafValues>
            4.0516081452369690e-01 -6.2360852956771851e-01</leafValues></_>
        <_>
          <internalNodes>
            0 -1 103 -7.1173522155731916e-04</internalNodes>
          <leafValues>
            2.6880228519439697e-01 -5.7155835628509521e-01</leafValues></_>
        <_>
          <internalNodes>
            0 -1 166 5.7962853461503983e-03</internalNodes>
          <leafValues>
            -7.5137311220169067e-01 2.5379586219787598e-01</leafValues></_>
        <_>
          <internalNodes>
            0 -1 35 2.4808768182992935e-02</internalNodes>
          <leafValues>
            -3.5704696178436279e-01 4.7653406858444214e-01</leafValues></_>
        <_>
          <internalNodes>
            0 -1 96 8.7148295715451241e-03</internalNodes>
          <leafValues>
            -5.5942219495773315e-01 2.8810444474220276e-01</leafValues></_>
        <_>
          <internalNodes>
            0 -1 37 3.8644868880510330e-02</internalNodes>
          <leafValues>
            -4.3533077836036682e-01 2.5328233838081360e-01</leafValues></_>
        <_>
          <internalNodes>
            0 -1 65 8.7590029579587281e-05</internalNodes>
          <leafValues>
            -7.5681638717651367e-01 1.2381935119628906e-01</leafValues></_>
        <_>
          <internalNodes>
            0 -1 157 -2.8609138098545372e-05</internalNodes>
          <leafValues>
            1.9231075048446655e-01 -5.3367257118225098e-01</leafValues></_>
        <_>
          <internalNodes>
            0 -1 33 1.2357325758785009e-03</internalNodes>
          <leafValues>
            1.5602716803550720e-01 -6.5161412954330444e-01</leafValues></_>
        <_>
          <internalNodes>
            0 -1 99 2.5161191821098328e-02</internalNodes>
          <leafValues>
            1.3514427840709686e-01 -6.5816575288772583e-01</leafValues></_>
        <_>
          <internalNodes>
            0 -1 32 -5.1917862147092819e-02</internalNodes>
          <leafValues>
            -6.4377343654632568e-01 1.2962163984775543e-01</leafValues></_>
        <_>
          <internalNodes>
            0 -1 138 -3.4256332583026960e-05</internalNodes>
          <leafValues>
            1.4044488966464996e-01 -5.6195485591888428e-01</leafValues></_>
        <_>
          <internalNodes>
            0 -1 169 -4.9951486289501190e-04</internalNodes>
          <leafValues>
            -5.5722737312316895e-01 1.5219740569591522e-01</leafValues></_></weakClassifiers></_>
    <!-- stage 7 -->
    <_>
      <maxWeakCount>16</maxWeakCount>
      <stageThreshold>-2.1595685482025146e+00</stageThreshold>
      <weakClassifiers>
        <_>
          <internalNodes>
            0 -1 9 1.0191978514194489e-01</internalNodes>
          <leafValues>
            -5.9417051076889038e-01 4.3126720190048218e-01</leafValues></_>
        <_>
          <internalNodes>
            0 -1 167 -3.8991970941424370e-03</internalNodes>
          <leafValues>
            3.7781533598899841e-01 -6.2108474969863892e-01</leafValues></_>
        <_>
          <internalNodes>
            0 -1 19 -6.0367844998836517e-03</internalNodes>
          <leafValues>
            3.1923326849937439e-01 -5.5060493946075439e-01</leafValues></_>
        <_>
          <internalNodes>
            0 -1 76 3.9404481649398804e-03</internalNodes>
          <leafValues>
            -6.3766318559646606e-01 2.1557110548019409e-01</leafValues></_>
        <_>
          <internalNodes>
            0 -1 28 2.8884592466056347e-03</internalNodes>
          <leafValues>
            -6.4205080270767212e-01 1.9909630715847015e-01</leafValues></_>
        <_>
          <internalNodes>
            0 -1 117 -1.5346986055374146e-01</internalNodes>
          <leafValues>
            5.1924502849578857e-01 -2.7813163399696350e-01</leafValues></_>
        <_>
          <internalNodes>
            0 -1 111 -1.1347737163305283e-03</internalNodes>
          <leafValues>
            1.7470030486583710e-01 -6.2756603956222534e-01</leafValues></_>
        <_>
          <internalNodes>
            0 -1 159 4.6339415712282062e-04</internalNodes>
          <leafValues>
            -4.6913903951644897e-01 2.5521606206893921e-01</leafValues></_>
        <_>
          <internalNodes>
            0 -1 50 -2.5850349629763514e-05</internalNodes>
          <leafValues>
            1.8746794760227203e-01 -5.0234150886535645e-01</leafValues></_>
        <_>
          <internalNodes>
            0 -1 152 1.7391389701515436e-03</internalNodes>
          <leafValues>
            -6.1113476753234863e-01 1.6039204597473145e-01</leafValues></_>
        <_>
          <internalNodes>
            0 -1 104 3.6318772472441196e-03</internalNodes>
          <leafValues>
            -2.5513124465942383e-01 3.8148722052574158e-01</leafValues></_>
        <_>
          <internalNodes>
            0 -1 162 1.5669733285903931e-01</internalNodes>
          <leafValues>
            -1.2703719735145569e-01 7.8894132375717163e-01</leafValues></_>
        <_>
          <internalNodes>
            0 -1 73 1.9735489040613174e-02</internalNodes>
          <leafValues>
            -2.2286376357078552e-01 4.2996597290039063e-01</leafValues></_>
        <_>
          <internalNodes>
            0 -1 184 1.1464629787951708e-03</internalNodes>
          <leafValues>
            1.5472140908241272e-01 -6.2154817581176758e-01</leafValues></_>
        <_>
          <internalNodes>
            0 -1 88 1.2650739401578903e-02</internalNodes>
          <leafValues>
            1.1354506015777588e-01 -7.5318235158920288e-01</leafValues></_>
        <_>
          <internalNodes>
            0 -1 149 -2.0906650461256504e-03</internalNodes>
          <leafValues>
            2.3280191421508789e-01 -3.6061170697212219e-01</leafValues></_></weakClassifiers></_>
    <!-- stage 8 -->
    <_>
      <maxWeakCount>17</maxWeakCount>
      <stageThreshold>-2.0940449237823486e+00</stageThreshold>
      <weakClassifiers>
        <_>
          <internalNodes>
            0 -1 11 3.9080494642257690e-01</internalNodes>
          <leafValues>
            -6.2326461076736450e-01 4.2228633165359497e-01</leafValues></_>
        <_>
          <internalNodes>
            0 -1 61 -4.3217116035521030e-03</internalNodes>
          <leafValues>
            2.4004897475242615e-01 -6.1357176303863525e-01</leafValues></_>
        <_>
          <internalNodes>
            0 -1 145 5.4108644835650921e-03</internalNodes>
          <leafValues>
            -5.5736601352691650e-01 2.7951461076736450e-01</leafValues></_>
        <_>
          <internalNodes>
            0 -1 112 8.4647824987769127e-03</internalNodes>
          <leafValues>
            -7.3939371109008789e-01 1.9684278964996338e-01</leafValues></_>
        <_>
          <internalNodes>
            0 -1 67 -2.8835082048317418e-05</internalNodes>
          <leafValues>
            2.0024114847183228e-01 -5.7813775539398193e-01</leafValues></_>
        <_>
          <internalNodes>
            0 -1 64 3.1478428281843662e-03</internalNodes>
          <leafValues>
            1.9043150544166565e-01 -6.4441972970962524e-01</leafValues></_>
        <_>
          <internalNodes>
            0 -1 92 -8.1569589674472809e-03</internalNodes>
          <leafValues>
            2.6274511218070984e-01 -3.9642775058746338e-01</leafValues></_>
        <_>
          <internalNodes>
            0 -1 54 2.7510315179824829e-02</internalNodes>
          <leafValues>
            -2.5204685330390930e-01 4.1300475597381592e-01</leafValues></_>
        <_>
          <internalNodes>
            0 -1 178 1.8708647694438696e-03</internalNodes>
          <leafValues>
            1.2531651556491852e-01 -7.0860934257507324e-01</leafValues></_>
        <_>
          <internalNodes>
            0 -1 66 -7.4438825249671936e-03</internalNodes>
          <leafValues>
            -6.7255026102066040e-01 1.3166321814060211e-01</leafValues></_>
        <_>
          <internalNodes>
            0 -1 87 -7.9407659359276295e-04</internalNodes>
          <leafValues>
            1.8586339056491852e-01 -5.1950830221176147e-01</leafValues></_>
        <_>
          <internalNodes>
            0 -1 51 -1.6593300970271230e-03</internalNodes>
          <leafValues>
            -6.1680316925048828e-01 1.4502605795860291e-01</leafValues></_>
        <_>
          <internalNodes>
            0 -1 180 1.4830916188657284e-03</internalNodes>
          <leafValues>
            1.0284306854009628e-01 -7.0046818256378174e-01</leafValues></_>
        <_>
          <internalNodes>
            0 -1 158 -3.0718791094841436e-05</internalNodes>
          <leafValues>
            1.6620671749114990e-01 -5.2395278215408325e-01</leafValues></_>
        <_>
          <internalNodes>
            0 -1 133 -9.8090164829045534e-04</internalNodes>
          <leafValues>
            1.6609993577003479e-01 -4.9081993103027344e-01</leafValues></_>
        <_>
          <internalNodes>
            0 -1 29 4.2651598341763020e-03</internalNodes>
          <leafValues>
            1.1050802469253540e-01 -6.1484658718109131e-01</leafValues></_>
        <_>
          <internalNodes>
            0 -1 82 1.7824892711360008e-04</internalNodes>
          <leafValues>
            -6.9112950563430786e-01 9.8614707589149475e-02</leafValues></_></weakClassifiers></_>
    <!-- stage 9 -->
    <_>
      <maxWeakCount>18</maxWeakCount>
      <stageThreshold>-1.9196316003799438e+00</stageThreshold>
      <weakClassifiers>
        <_>
          <internalNodes>
            0 -1 173 -6.3634708523750305e-02</internalNodes>
          <leafValues>
            3.6952713131904602e-01 -5.8865761756896973e-01</leafValues></_>
        <_>
          <internalNodes>
            0 -1 43 -1.1759884655475616e-02</internalNodes>
          <leafValues>
            2.7786827087402344e-01 -6.6095441579818726e-01</leafValues></_>
        <_>
          <internalNodes>
            0 -1 122 -3.4735419321805239e-03</internalNodes>
          <leafValues>
            2.3138469457626343e-01 -6.1201387643814087e-01</leafValues></_>
        <_>
          <internalNodes>
            0 -1 55 4.6916157007217407e-02</internalNodes>
          <leafValues>
            -4.8161518573760986e-01 3.0585110187530518e-01</leafValues></_>
        <_>
          <internalNodes>
            0 -1 53 7.2504328563809395e-03</internalNodes>
          <leafValues>
            -3.4579098224639893e-01 3.7650448083877563e-01</leafValues></_>
        <_>
          <internalNodes>
            0 -1 153 2.0808729459531605e-05</internalNodes>
          <leafValues>
            -3.8316649198532104e-01 2.8685101866722107e-01</leafValues></_>
        <_>
          <internalNodes>
            0 -1 56 4.7937300987541676e-03</internalNodes>
          <leafValues>
            -6.6951978206634521e-01 1.3504615426063538e-01</leafValues></_>
        <_>
          <internalNodes>
            0 -1 110 6.3720432808622718e-04</internalNodes>
          <leafValues>
            -5.1953506469726563e-01 1.6899284720420837e-01</leafValues></_>
        <_>
          <internalNodes>
            0 -1 126 -9.1565848561003804e-04</internalNodes>
          <leafValues>
            -7.8638160228729248e-01 7.8612357378005981e-02</leafValues></_>
        <_>
          <internalNodes>
            0 -1 187 -6.4489250071346760e-03</internalNodes>
          <leafValues>
            -6.0113221406936646e-01 1.2997168302536011e-01</leafValues></_>
        <_>
          <internalNodes>
            0 -1 155 -7.0907943882048130e-04</internalNodes>
          <leafValues>
            1.9562228024005890e-01 -4.4516167044639587e-01</leafValues></_>
        <_>
          <internalNodes>
            0 -1 30 1.4930216129869223e-03</internalNodes>
          <leafValues>
            1.1746370047330856e-01 -7.0896464586257935e-01</leafValues></_>
        <_>
          <internalNodes>
            0 -1 119 5.1127065671607852e-04</internalNodes>
          <leafValues>
            1.2901189923286438e-01 -5.6985366344451904e-01</leafValues></_>
        <_>
          <internalNodes>
            0 -1 118 -1.4334323350340128e-03</internalNodes>
          <leafValues>
            -6.7598742246627808e-01 1.0199592262506485e-01</leafValues></_>
        <_>
          <internalNodes>
            0 -1 130 -1.5021869912743568e-03</internalNodes>
          <leafValues>
            -6.4790290594100952e-01 1.1207029968500137e-01</leafValues></_>
        <_>
          <internalNodes>
            0 -1 128 -2.2292644716799259e-03</internalNodes>
          <leafValues>
            3.7306571006774902e-01 -2.2461493313312531e-01</leafValues></_>
        <_>
          <internalNodes>
            0 -1 15 -7.3904460296034813e-03</internalNodes>
          <leafValues>
            -6.2337821722030640e-01 1.2296407669782639e-01</leafValues></_>
        <_>
          <internalNodes>
            0 -1 47 -7.9997483408078551e-04</internalNodes>
          <leafValues>
            -5.9752142429351807e-01 1.0394116491079330e-01</leafValues></_></weakClassifiers></_>
    <!-- stage 10 -->
    <_>
      <maxWeakCount>19</maxWeakCount>
      <stageThreshold>-1.9272582530975342e+00</stageThreshold>
      <weakClassifiers>
        <_>
          <internalNodes>
            0 -1 12 5.9837672859430313e-02</internalNodes>
          <leafValues>
            -5.6838876008987427e-01 3.7321403622627258e-01</leafValues></_>
        <_>
          <internalNodes>
            0 -1 78 -1.7998464172706008e-03</internalNodes>
          <leafValues>
            2.9630905389785767e-01 -5.2933669090270996e-01</leafValues></_>
        <_>
          <internalNodes>
            0 -1 123 5.3484085947275162e-03</internalNodes>
          <leafValues>
            -5.2505171298980713e-01 2.6235041022300720e-01</leafValues></_>
        <_>
          <internalNodes>
            0 -1 142 -4.1065488010644913e-02</internalNodes>
          <leafValues>
            5.1476174592971802e-01 -2.3785004019737244e-01</leafValues></_>
        <_>
          <internalNodes>
            0 -1 105 -1.7549277981743217e-04</internalNodes>
          <leafValues>
            2.2439630329608917e-01 -4.9248284101486206e-01</leafValues></_>
        <_>
          <internalNodes>
            0 -1 135 -1.2487947242334485e-03</internalNodes>
          <leafValues>
            1.5950237214565277e-01 -4.9006792902946472e-01</leafValues></_>
        <_>
          <internalNodes>
            0 -1 21 -2.5787251070141792e-03</internalNodes>
          <leafValues>
            -6.0798072814941406e-01 1.9860509037971497e-01</leafValues></_>
        <_>
          <internalNodes>
            0 -1 141 -2.6037255302071571e-03</internalNodes>
          <leafValues>
            2.3580545186996460e-01 -3.6940926313400269e-01</leafValues></_>
        <_>
          <internalNodes>
            0 -1 124 3.0915946699678898e-03</internalNodes>
          <leafValues>
            -4.9913910031318665e-01 1.8300737440586090e-01</leafValues></_>
        <_>
          <internalNodes>
            0 -1 27 -3.5910322330892086e-03</internalNodes>
          <leafValues>
            2.2712427377700806e-01 -3.9589935541152954e-01</leafValues></_>
        <_>
          <internalNodes>
            0 -1 44 -2.4854042567312717e-03</internalNodes>
          <leafValues>
            -6.8872284889221191e-01 1.0478518903255463e-01</leafValues></_>
        <_>
          <internalNodes>
            0 -1 143 -1.7097534146159887e-03</internalNodes>
          <leafValues>
            -6.8150728940963745e-01 1.0066567361354828e-01</leafValues></_>
        <_>
          <internalNodes>
            0 -1 1 -1.4410765841603279e-02</internalNodes>
          <leafValues>
            3.8633930683135986e-01 -2.0603537559509277e-01</leafValues></_>
        <_>
          <internalNodes>
            0 -1 139 -7.1660062531009316e-04</internalNodes>
          <leafValues>
            -7.1362572908401489e-01 1.0924773663282394e-01</leafValues></_>
        <_>
          <internalNodes>
            0 -1 8 3.5497802309691906e-03</internalNodes>
          <leafValues>
            9.6483588218688965e-02 -6.8131297826766968e-01</leafValues></_>
        <_>
          <internalNodes>
            0 -1 177 -2.4713328457437456e-05</internalNodes>
          <leafValues>
            1.6366977989673615e-01 -4.2811602354049683e-01</leafValues></_>
        <_>
          <internalNodes>
            0 -1 68 -2.6166521012783051e-02</internalNodes>
          <leafValues>
            -7.0678454637527466e-01 9.5490865409374237e-02</leafValues></_>
        <_>
          <internalNodes>
            0 -1 108 -2.0846647676080465e-03</internalNodes>
          <leafValues>
            -6.6148674488067627e-01 8.7795875966548920e-02</leafValues></_>
        <_>
          <internalNodes>
            0 -1 146 -2.7493504603626207e-05</internalNodes>
          <leafValues>
            1.7428511381149292e-01 -3.8268274068832397e-01</leafValues></_></weakClassifiers></_>
    <!-- stage 11 -->
    <_>
      <maxWeakCount>21</maxWeakCount>
      <stageThreshold>-2.1106765270233154e+00</stageThreshold>
      <weakClassifiers>
        <_>
          <internalNodes>
            0 -1 3 1.4813119173049927e-01</internalNodes>
          <leafValues>
            -5.8700448274612427e-01 2.0629626512527466e-01</leafValues></_>
        <_>
          <internalNodes>
            0 -1 167 -5.3774677217006683e-03</internalNodes>
          <leafValues>
            3.0668658018112183e-01 -4.8868793249130249e-01</leafValues></_>
        <_>
          <internalNodes>
            0 -1 69 2.0550286862999201e-03</internalNodes>
          <leafValues>
            -3.9781644940376282e-01 3.3913725614547729e-01</leafValues></_>
        <_>
          <internalNodes>
            0 -1 91 -5.8395229279994965e-03</internalNodes>
          <leafValues>
            3.8172459602355957e-01 -2.9550915956497192e-01</leafValues></_>
        <_>
          <internalNodes>
            0 -1 60 2.0674220286309719e-03</internalNodes>
          <leafValues>
            -6.1700844764709473e-01 1.9771070778369904e-01</leafValues></_>
        <_>
          <internalNodes>
            0 -1 46 -1.8906045006588101e-03</internalNodes>
          <leafValues>
            1.5447615087032318e-01 -5.5189728736877441e-01</leafValues></_>
        <_>
          <internalNodes>
            0 -1 100 -2.4847071617841721e-02</internalNodes>
          <leafValues>
            -6.3710951805114746e-01 9.7187370061874390e-02</leafValues></_>
        <_>
          <internalNodes>
            0 -1 136 3.7459414452314377e-03</internalNodes>
          <leafValues>
            1.6709192097187042e-01 -6.2565618753433228e-01</leafValues></_>
        <_>
          <internalNodes>
            0 -1 17 1.0381938889622688e-02</internalNodes>
          <leafValues>
            -4.5441535115242004e-01 2.0836412906646729e-01</leafValues></_>
        <_>
          <internalNodes>
            0 -1 34 -1.8867040053009987e-03</internalNodes>
          <leafValues>
            -6.3337469100952148e-01 9.5621354877948761e-02</leafValues></_>
        <_>
          <internalNodes>
            0 -1 86 -2.6899093427346088e-05</internalNodes>
          <leafValues>
            2.4092122912406921e-01 -3.4871226549148560e-01</leafValues></_>
        <_>
          <internalNodes>
            0 -1 101 2.4773122277110815e-05</internalNodes>
          <leafValues>
            -5.9267747402191162e-01 1.4932483434677124e-01</leafValues></_>
        <_>
          <internalNodes>
            0 -1 174 -9.0963363647460938e-02</internalNodes>
          <leafValues>
            4.8612186312675476e-01 -1.8186433613300323e-01</leafValues></_>
        <_>
          <internalNodes>
            0 -1 182 1.3294985890388489e-01</internalNodes>
          <leafValues>
            -1.1520813405513763e-01 7.0174247026443481e-01</leafValues></_>
        <_>
          <internalNodes>
            0 -1 109 1.7682763282209635e-03</internalNodes>
          <leafValues>
            1.4689536392688751e-01 -5.7284510135650635e-01</leafValues></_>
        <_>
          <internalNodes>
            0 -1 161 -3.8287794450297952e-04</internalNodes>
          <leafValues>
            1.9186785817146301e-01 -3.6930471658706665e-01</leafValues></_>
        <_>
          <internalNodes>
            0 -1 83 9.2620705254375935e-04</internalNodes>
          <leafValues>
            -6.3418120145797729e-01 1.1707448214292526e-01</leafValues></_>
        <_>
          <internalNodes>
            0 -1 171 1.6742934240028262e-03</internalNodes>
          <leafValues>
            1.0316439718008041e-01 -6.3899546861648560e-01</leafValues></_>
        <_>
          <internalNodes>
            0 -1 185 -1.7928783781826496e-03</internalNodes>
          <leafValues>
            -6.0851228237152100e-01 1.0817737132310867e-01</leafValues></_>
        <_>
          <internalNodes>
            0 -1 148 9.4141381850931793e-05</internalNodes>
          <leafValues>
            -2.4944193661212921e-01 2.7956047654151917e-01</leafValues></_>
        <_>
          <internalNodes>
            0 -1 5 7.4095996096730232e-03</internalNodes>
          <leafValues>
            1.3995271921157837e-01 -4.7493976354598999e-01</leafValues></_></weakClassifiers></_>
    <!-- stage 12 -->
    <_>
      <maxWeakCount>21</maxWeakCount>
      <stageThreshold>-1.9427534341812134e+00</stageThreshold>
      <weakClassifiers>
        <_>
          <internalNodes>
            0 -1 36 3.2549992203712463e-02</internalNodes>
          <leafValues>
            -6.1051666736602783e-01 1.9105455279350281e-01</leafValues></_>
        <_>
          <internalNodes>
            0 -1 176 -3.3169612288475037e-03</internalNodes>
          <leafValues>
            2.2390775382518768e-01 -5.6995713710784912e-01</leafValues></_>
        <_>
          <internalNodes>
            0 -1 22 4.2650822550058365e-02</internalNodes>
          <leafValues>
            -3.0005452036857605e-01 4.5165997743606567e-01</leafValues></_>
        <_>
          <internalNodes>
            0 -1 154 4.3178122723475099e-04</internalNodes>
          <leafValues>
            -3.4728345274925232e-01 3.2103329896926880e-01</leafValues></_>
        <_>
          <internalNodes>
            0 -1 77 1.2030228041112423e-02</internalNodes>
          <leafValues>
            -5.9155160188674927e-01 2.0162531733512878e-01</leafValues></_>
        <_>
          <internalNodes>
            0 -1 24 -3.5602471325546503e-03</internalNodes>
          <leafValues>
            1.8052752315998077e-01 -5.5320012569427490e-01</leafValues></_>
        <_>
          <internalNodes>
            0 -1 147 -4.8019377572927624e-05</internalNodes>
          <leafValues>
            1.2189522385597229e-01 -6.4648699760437012e-01</leafValues></_>
        <_>
          <internalNodes>
            0 -1 144 1.2443258310668170e-04</internalNodes>
          <leafValues>
            -4.9567744135856628e-01 1.7341192066669464e-01</leafValues></_>
        <_>
          <internalNodes>
            0 -1 49 -9.1591998934745789e-03</internalNodes>
          <leafValues>
            -6.5042310953140259e-01 1.2555685639381409e-01</leafValues></_>
        <_>
          <internalNodes>
            0 -1 25 -1.1572577059268951e-02</internalNodes>
          <leafValues>
            -7.2918188571929932e-01 7.1241334080696106e-02</leafValues></_>
        <_>
          <internalNodes>
            0 -1 164 2.5255605578422546e-03</internalNodes>
          <leafValues>
            9.4827242195606232e-02 -7.2153651714324951e-01</leafValues></_>
        <_>
          <internalNodes>
            0 -1 7 -5.2825827151536942e-03</internalNodes>
          <leafValues>
            -6.8846803903579712e-01 9.6303820610046387e-02</leafValues></_>
        <_>
          <internalNodes>
            0 -1 175 3.1252498738467693e-03</internalNodes>
          <leafValues>
            1.1130552738904953e-01 -6.5440863370895386e-01</leafValues></_>
        <_>
          <internalNodes>
            0 -1 106 5.9367483481764793e-04</internalNodes>
          <leafValues>
            -3.5663327574729919e-01 1.9698610901832581e-01</leafValues></_>
        <_>
          <internalNodes>
            0 -1 186 -1.4327949611470103e-03</internalNodes>
          <leafValues>
            -7.1834254264831543e-01 9.8716296255588531e-02</leafValues></_>
        <_>
          <internalNodes>
            0 -1 48 9.3318731524050236e-04</internalNodes>
          <leafValues>
            9.1768920421600342e-02 -6.2793731689453125e-01</leafValues></_>
        <_>
          <internalNodes>
            0 -1 116 3.6651589907705784e-03</internalNodes>
          <leafValues>
            -1.4778824150562286e-01 4.8150795698165894e-01</leafValues></_>
        <_>
          <internalNodes>
            0 -1 38 -1.2752686161547899e-03</internalNodes>
          <leafValues>
            -5.0718247890472412e-01 1.2579731643199921e-01</leafValues></_>
        <_>
          <internalNodes>
            0 -1 114 4.1704969480633736e-03</internalNodes>
          <leafValues>
            -1.6658270359039307e-01 3.9578953385353088e-01</leafValues></_>
        <_>
          <internalNodes>
            0 -1 115 2.9480480588972569e-03</internalNodes>
          <leafValues>
            -1.3118733465671539e-01 4.9402725696563721e-01</leafValues></_>
        <_>
          <internalNodes>
            0 -1 18 -3.8544391281902790e-03</internalNodes>
          <leafValues>
            -5.4665976762771606e-01 1.3211472332477570e-01</leafValues></_></weakClassifiers></_>
    <!-- stage 13 -->
    <_>
      <maxWeakCount>23</maxWeakCount>
      <stageThreshold>-1.9287966489791870e+00</stageThreshold>
      <weakClassifiers>
        <_>
          <internalNodes>
            0 -1 79 7.8509142622351646e-04</internalNodes>
          <leafValues>
            -5.8361911773681641e-01 1.5454187989234924e-01</leafValues></_>
        <_>
          <internalNodes>
            0 -1 6 3.1134266406297684e-02</internalNodes>
          <leafValues>
            -4.1258287429809570e-01 3.3495604991912842e-01</leafValues></_>
        <_>
          <internalNodes>
            0 -1 102 4.1903092642314732e-04</internalNodes>
          <leafValues>
            -3.8114172220230103e-01 3.1546285748481750e-01</leafValues></_>
        <_>
          <internalNodes>
            0 -1 183 -1.1034359922632575e-03</internalNodes>
          <leafValues>
            2.6043295860290527e-01 -4.2445409297943115e-01</leafValues></_>
        <_>
          <internalNodes>
            0 -1 94 1.5473570674657822e-03</internalNodes>
          <leafValues>
            -4.5637673139572144e-01 2.2456200420856476e-01</leafValues></_>
        <_>
          <internalNodes>
            0 -1 85 7.6221430208534002e-04</internalNodes>
          <leafValues>
            1.7238888144493103e-01 -5.7633680105209351e-01</leafValues></_>
        <_>
          <internalNodes>
            0 -1 150 -1.6216298099607229e-03</internalNodes>
          <leafValues>
            1.7609481513500214e-01 -4.5259463787078857e-01</leafValues></_>
        <_>
          <internalNodes>
            0 -1 84 -5.7074252981692553e-04</internalNodes>
          <leafValues>
            -6.3215380907058716e-01 1.3857389986515045e-01</leafValues></_>
        <_>
          <internalNodes>
            0 -1 93 5.4794074967503548e-03</internalNodes>
          <leafValues>
            -4.2433059215545654e-01 1.4793647825717926e-01</leafValues></_>
        <_>
          <internalNodes>
            0 -1 137 1.4471171889454126e-03</internalNodes>
          <leafValues>
            -6.2921363115310669e-01 1.2329200655221939e-01</leafValues></_>
        <_>
          <internalNodes>
            0 -1 127 2.8956246096640825e-03</internalNodes>
          <leafValues>
            1.2181842327117920e-01 -5.7608181238174438e-01</leafValues></_>
        <_>
          <internalNodes>
            0 -1 179 1.0390607640147209e-03</internalNodes>
          <leafValues>
            9.5869161188602448e-02 -6.7499452829360962e-01</leafValues></_>
        <_>
          <internalNodes>
            0 -1 120 3.0319450888782740e-03</internalNodes>
          <leafValues>
            1.2676537036895752e-01 -5.0788980722427368e-01</leafValues></_>
        <_>
          <internalNodes>
            0 -1 63 3.0177552253007889e-03</internalNodes>
          <leafValues>
            -5.8306109905242920e-01 1.1221970617771149e-01</leafValues></_>
        <_>
          <internalNodes>
            0 -1 170 -3.7807109765708447e-03</internalNodes>
          <leafValues>
            -6.5768802165985107e-01 8.4837578237056732e-02</leafValues></_>
        <_>
          <internalNodes>
            0 -1 31 -2.6237328711431473e-05</internalNodes>
          <leafValues>
            1.4461919665336609e-01 -4.5976442098617554e-01</leafValues></_>
        <_>
          <internalNodes>
            0 -1 113 -4.1022556833922863e-03</internalNodes>
          <leafValues>
            -5.3600877523422241e-01 1.2424730509519577e-01</leafValues></_>
        <_>
          <internalNodes>
            0 -1 90 -8.4294509142637253e-03</internalNodes>
          <leafValues>
            -5.5939692258834839e-01 8.7668575346469879e-02</leafValues></_>
        <_>
          <internalNodes>
            0 -1 188 -3.4552616998553276e-03</internalNodes>
          <leafValues>
            -5.8363920450210571e-01 1.0456959158182144e-01</leafValues></_>
        <_>
          <internalNodes>
            0 -1 165 1.2152518611401320e-03</internalNodes>
          <leafValues>
            1.1767838895320892e-01 -4.9190452694892883e-01</leafValues></_>
        <_>
          <internalNodes>
            0 -1 129 2.4323593825101852e-03</internalNodes>
          <leafValues>
            -1.9681476056575775e-01 2.9880967736244202e-01</leafValues></_>
        <_>
          <internalNodes>
            0 -1 16 3.2214880920946598e-03</internalNodes>
          <leafValues>
            1.2164110690355301e-01 -5.8058214187622070e-01</leafValues></_>
        <_>
          <internalNodes>
            0 -1 0 -9.4602108001708984e-02</internalNodes>
          <leafValues>
            6.8423771858215332e-01 -9.1616608202457428e-02</leafValues></_></weakClassifiers></_></stages>
  <features>
    <_>
      <rects>
        <_>
          0 0 6 22 -1.</_>
        <_>
          3 0 3 22 2.</_></rects>
      <tilted>0</tilted></_>
    <_>
      <rects>
        <_>
          0 0 24 1 -1.</_>
        <_>
          8 0 8 1 3.</_></rects>
      <tilted>0</tilted></_>
    <_>
      <rects>
        <_>
          0 2 21 19 -1.</_>
        <_>
          7 2 7 19 3.</_></rects>
      <tilted>0</tilted></_>
    <_>
      <rects>
        <_>
          0 3 21 5 -1.</_>
        <_>
          7 3 7 5 3.</_></rects>
      <tilted>0</tilted></_>
    <_>
      <rects>
        <_>
          0 4 24 4 -1.</_>
        <_>
          8 4 8 4 3.</_></rects>
      <tilted>0</tilted></_>
    <_>
      <rects>
        <_>
          0 4 20 3 -1.</_>
        <_>
          0 5 20 1 3.</_></rects>
      <tilted>0</tilted></_>
    <_>
      <rects>
        <_>
          0 6 24 1 -1.</_>
        <_>
          8 6 8 1 3.</_></rects>
      <tilted>0</tilted></_>
    <_>
      <rects>
        <_>
          0 8 5 3 -1.</_>
        <_>
          0 9 5 1 3.</_></rects>
      <tilted>0</tilted></_>
    <_>
      <rects>
        <_>
          0 10 4 3 -1.</_>
        <_>
          0 11 4 1 3.</_></rects>
      <tilted>0</tilted></_>
    <_>
      <rects>
        <_>
          1 2 8 18 -1.</_>
        <_>
          5 2 4 18 2.</_></rects>
      <tilted>0</tilted></_>
    <_>
      <rects>
        <_>
          1 2 21 19 -1.</_>
        <_>
          8 2 7 19 3.</_></rects>
      <tilted>0</tilted></_>
    <_>
      <rects>
        <_>
          1 2 21 20 -1.</_>
        <_>
          8 2 7 20 3.</_></rects>
      <tilted>0</tilted></_>
    <_>
      <rects>
        <_>
          1 3 6 15 -1.</_>
        <_>
          4 3 3 15 2.</_></rects>
      <tilted>0</tilted></_>
    <_>
      <rects>
        <_>
          1 3 21 4 -1.</_>
        <_>
          8 3 7 4 3.</_></rects>
      <tilted>0</tilted></_>
    <_>
      <rects>
        <_>
          1 4 21 3 -1.</_>
        <_>
          8 4 7 3 3.</_></rects>
      <tilted>0</tilted></_>
    <_>
      <rects>
        <_>
          1 10 22 2 -1.</_>
        <_>
          1 10 11 1 2.</_>
        <_>
          12 11 11 1 2.</_></rects>
      <tilted>0</tilted></_>
    <_>
      <rects>
        <_>
          2 3 5 3 -1.</_>
        <_>
          2 4 5 1 3.</_></rects>
      <tilted>0</tilted></_>
    <_>
      <rects>
        <_>
          2 3 17 6 -1.</_>
        <_>
          2 5 17 2 3.</_></rects>
      <tilted>0</tilted></_>
    <_>
      <rects>
        <_>
          2 4 16 2 -1.</_>
        <_>
          2 4 8 1 2.</_>
        <_>
          10 5 8 1 2.</_></rects>
      <tilted>0</tilted></_>
    <_>
      <rects>
        <_>
          2 6 8 4 -1.</_>
        <_>
          2 6 4 2 2.</_>
        <_>
          6 8 4 2 2.</_></rects>
      <tilted>0</tilted></_>
    <_>
      <rects>
        <_>
          2 9 17 2 -1.</_>
        <_>
          2 10 17 1 2.</_></rects>
      <tilted>0</tilted></_>
    <_>
      <rects>
        <_>
          2 11 10 2 -1.</_>
        <_>
          2 11 5 1 2.</_>
        <_>
          7 12 5 1 2.</_></rects>
      <tilted>0</tilted></_>
    <_>
      <rects>
        <_>
          2 19 18 2 -1.</_>
        <_>
          8 19 6 2 3.</_></rects>
      <tilted>0</tilted></_>
    <_>
      <rects>
        <_>
          3 7 18 12 -1.</_>
        <_>
          3 11 18 4 3.</_></rects>
      <tilted>0</tilted></_>
    <_>
      <rects>
        <_>
          3 8 7 3 -1.</_>
        <_>
          3 9 7 1 3.</_></rects>
      <tilted>0</tilted></_>
    <_>
      <rects>
        <_>
          3 11 18 4 -1.</_>
        <_>
          3 11 9 2 2.</_>
        <_>
          12 13 9 2 2.</_></rects>
      <tilted>0</tilted></_>
    <_>
      <rects>
        <_>
          4 0 13 6 -1.</_>
        <_>
          4 3 13 3 2.</_></rects>
      <tilted>0</tilted></_>
    <_>
      <rects>
        <_>
          4 2 6 12 -1.</_>
        <_>
          4 2 3 6 2.</_>
        <_>
          7 8 3 6 2.</_></rects>
      <tilted>0</tilted></_>
    <_>
      <rects>
        <_>
          4 9 9 2 -1.</_>
        <_>
          4 10 9 1 2.</_></rects>
      <tilted>0</tilted></_>
    <_>
      <rects>
        <_>
          4 11 16 2 -1.</_>
        <_>
          4 11 8 1 2.</_>
        <_>
          12 12 8 1 2.</_></rects>
      <tilted>0</tilted></_>
    <_>
      <rects>
        <_>
          4 13 2 3 -1.</_>
        <_>
          4 14 2 1 3.</_></rects>
      <tilted>0</tilted></_>
    <_>
      <rects>
        <_>
          4 13 4 2 -1.</_>
        <_>
          4 14 4 1 2.</_></rects>
      <tilted>0</tilted></_>
    <_>
      <rects>
        <_>
          4 13 13 9 -1.</_>
        <_>
          4 16 13 3 3.</_></rects>
      <tilted>0</tilted></_>
    <_>
      <rects>
        <_>
          4 14 3 3 -1.</_>
        <_>
          4 15 3 1 3.</_></rects>
      <tilted>0</tilted></_>
    <_>
      <rects>
        <_>
          4 15 3 3 -1.</_>
        <_>
          4 16 3 1 3.</_></rects>
      <tilted>0</tilted></_>
    <_>
      <rects>
        <_>
          4 19 15 2 -1.</_>
        <_>
          9 19 5 2 3.</_></rects>
      <tilted>0</tilted></_>
    <_>
      <rects>
        <_>
          5 0 12 4 -1.</_>
        <_>
          5 2 12 2 2.</_></rects>
      <tilted>0</tilted></_>
    <_>
      <rects>
        <_>
          5 1 11 9 -1.</_>
        <_>
          5 4 11 3 3.</_></rects>
      <tilted>0</tilted></_>
    <_>
      <rects>
        <_>
          5 4 4 2 -1.</_>
        <_>
          5 5 4 1 2.</_></rects>
      <tilted>0</tilted></_>
    <_>
      <rects>
        <_>
          5 6 12 6 -1.</_>
        <_>
          5 8 12 2 3.</_></rects>
      <tilted>0</tilted></_>
    <_>
      <rects>
        <_>
          5 8 12 3 -1.</_>
        <_>
          5 9 12 1 3.</_></rects>
      <tilted>0</tilted></_>
    <_>
      <rects>
        <_>
          5 8 12 6 -1.</_>
        <_>
          5 11 12 3 2.</_></rects>
      <tilted>0</tilted></_>
    <_>
      <rects>
        <_>
          5 8 13 9 -1.</_>
        <_>
          5 11 13 3 3.</_></rects>
      <tilted>0</tilted></_>
    <_>
      <rects>
        <_>
          5 8 15 3 -1.</_>
        <_>
          5 9 15 1 3.</_></rects>
      <tilted>0</tilted></_>
    <_>
      <rects>
        <_>
          5 9 10 1 -1.</_>
        <_>
          10 9 5 1 2.</_></rects>
      <tilted>0</tilted></_>
    <_>
      <rects>
        <_>
          5 9 12 4 -1.</_>
        <_>
          5 11 12 2 2.</_></rects>
      <tilted>0</tilted></_>
    <_>
      <rects>
        <_>
          5 12 4 6 -1.</_>
        <_>
          5 15 4 3 2.</_></rects>
      <tilted>0</tilted></_>
    <_>
      <rects>
        <_>
          5 13 1 3 -1.</_>
        <_>
          5 14 1 1 3.</_></rects>
      <tilted>0</tilted></_>
    <_>
      <rects>
        <_>
          5 14 2 3 -1.</_>
        <_>
          5 15 2 1 3.</_></rects>
      <tilted>0</tilted></_>
    <_>
      <rects>
        <_>
          5 14 12 4 -1.</_>
        <_>
          5 14 6 2 2.</_>
        <_>
          11 16 6 2 2.</_></rects>
      <tilted>0</tilted></_>
    <_>
      <rects>
        <_>
          5 15 4 2 -1.</_>
        <_>
          5 16 4 1 2.</_></rects>
      <tilted>0</tilted></_>
    <_>
      <rects>
        <_>
          5 16 3 3 -1.</_>
        <_>
          5 17 3 1 3.</_></rects>
      <tilted>0</tilted></_>
    <_>
      <rects>
        <_>
          5 20 6 1 -1.</_>
        <_>
          8 20 3 1 2.</_></rects>
      <tilted>0</tilted></_>
    <_>
      <rects>
        <_>
          5 20 12 1 -1.</_>
        <_>
          9 20 4 1 3.</_></rects>
      <tilted>0</tilted></_>
    <_>
      <rects>
        <_>
          6 0 10 4 -1.</_>
        <_>
          6 2 10 2 2.</_></rects>
      <tilted>0</tilted></_>
    <_>
      <rects>
        <_>
          6 1 11 9 -1.</_>
        <_>
          6 4 11 3 3.</_></rects>
      <tilted>0</tilted></_>
    <_>
      <rects>
        <_>
          6 7 2 8 -1.</_>
        <_>
          6 11 2 4 2.</_></rects>
      <tilted>0</tilted></_>
    <_>
      <rects>
        <_>
          6 8 2 3 -1.</_>
        <_>
          6 9 2 1 3.</_></rects>
      <tilted>0</tilted></_>
    <_>
      <rects>
        <_>
          6 8 11 3 -1.</_>
        <_>
          6 9 11 1 3.</_></rects>
      <tilted>0</tilted></_>
    <_>
      <rects>
        <_>
          6 9 2 6 -1.</_>
        <_>
          6 12 2 3 2.</_></rects>
      <tilted>0</tilted></_>
    <_>
      <rects>
        <_>
          6 9 6 1 -1.</_>
        <_>
          9 9 3 1 2.</_></rects>
      <tilted>0</tilted></_>
    <_>
      <rects>
        <_>
          6 9 6 4 -1.</_>
        <_>
          6 9 3 2 2.</_>
        <_>
          9 11 3 2 2.</_></rects>
      <tilted>0</tilted></_>
    <_>
      <rects>
        <_>
          6 9 6 6 -1.</_>
        <_>
          6 9 3 3 2.</_>
        <_>
          9 12 3 3 2.</_></rects>
      <tilted>0</tilted></_>
    <_>
      <rects>
        <_>
          6 9 4 6 -1.</_>
        <_>
          6 12 4 3 2.</_></rects>
      <tilted>0</tilted></_>
    <_>
      <rects>
        <_>
          6 9 8 8 -1.</_>
        <_>
          6 9 4 4 2.</_>
        <_>
          10 13 4 4 2.</_></rects>
      <tilted>0</tilted></_>
    <_>
      <rects>
        <_>
          6 10 6 2 -1.</_>
        <_>
          6 11 6 1 2.</_></rects>
      <tilted>0</tilted></_>
    <_>
      <rects>
        <_>
          6 11 12 4 -1.</_>
        <_>
          6 11 6 2 2.</_>
        <_>
          12 13 6 2 2.</_></rects>
      <tilted>0</tilted></_>
    <_>
      <rects>
        <_>
          6 13 2 2 -1.</_>
        <_>
          6 14 2 1 2.</_></rects>
      <tilted>0</tilted></_>
    <_>
      <rects>
        <_>
          6 13 4 9 -1.</_>
        <_>
          6 16 4 3 3.</_></rects>
      <tilted>0</tilted></_>
    <_>
      <rects>
        <_>
          6 17 4 4 -1.</_>
        <_>
          6 17 2 2 2.</_>
        <_>
          8 19 2 2 2.</_></rects>
      <tilted>0</tilted></_>
    <_>
      <rects>
        <_>
          6 19 9 4 -1.</_>
        <_>
          6 21 9 2 2.</_></rects>
      <tilted>0</tilted></_>
    <_>
      <rects>
        <_>
          7 0 8 4 -1.</_>
        <_>
          7 2 8 2 2.</_></rects>
      <tilted>0</tilted></_>
    <_>
      <rects>
        <_>
          7 0 8 12 -1.</_>
        <_>
          7 4 8 4 3.</_></rects>
      <tilted>0</tilted></_>
    <_>
      <rects>
        <_>
          7 0 9 4 -1.</_>
        <_>
          7 2 9 2 2.</_></rects>
      <tilted>0</tilted></_>
    <_>
      <rects>
        <_>
          7 1 8 9 -1.</_>
        <_>
          7 4 8 3 3.</_></rects>
      <tilted>0</tilted></_>
    <_>
      <rects>
        <_>
          7 6 9 6 -1.</_>
        <_>
          7 8 9 2 3.</_></rects>
      <tilted>0</tilted></_>
    <_>
      <rects>
        <_>
          7 7 6 3 -1.</_>
        <_>
          10 7 3 3 2.</_></rects>
      <tilted>0</tilted></_>
    <_>
      <rects>
        <_>
          7 7 9 3 -1.</_>
        <_>
          10 7 3 3 3.</_></rects>
      <tilted>0</tilted></_>
    <_>
      <rects>
        <_>
          7 8 1 3 -1.</_>
        <_>
          7 9 1 1 3.</_></rects>
      <tilted>0</tilted></_>
    <_>
      <rects>
        <_>
          7 8 2 2 -1.</_>
        <_>
          7 8 1 1 2.</_>
        <_>
          8 9 1 1 2.</_></rects>
      <tilted>0</tilted></_>
    <_>
      <rects>
        <_>
          7 9 1 4 -1.</_>
        <_>
          7 11 1 2 2.</_></rects>
      <tilted>0</tilted></_>
    <_>
      <rects>
        <_>
          7 9 9 1 -1.</_>
        <_>
          10 9 3 1 3.</_></rects>
      <tilted>0</tilted></_>
    <_>
      <rects>
        <_>
          7 9 4 2 -1.</_>
        <_>
          7 10 4 1 2.</_></rects>
      <tilted>0</tilted></_>
    <_>
      <rects>
        <_>
          7 9 5 2 -1.</_>
        <_>
          7 10 5 1 2.</_></rects>
      <tilted>0</tilted></_>
    <_>
      <rects>
        <_>
          7 11 2 1 -1.</_>
        <_>
          8 11 1 1 2.</_></rects>
      <tilted>0</tilted></_>
    <_>
      <rects>
        <_>
          7 11 2 2 -1.</_>
        <_>
          8 11 1 2 2.</_></rects>
      <tilted>0</tilted></_>
    <_>
      <rects>
        <_>
          7 13 2 1 -1.</_>
        <_>
          8 13 1 1 2.</_></rects>
      <tilted>0</tilted></_>
    <_>
      <rects>
        <_>
          7 14 3 6 -1.</_>
        <_>
          7 16 3 2 3.</_></rects>
      <tilted>0</tilted></_>
    <_>
      <rects>
        <_>
          7 14 8 6 -1.</_>
        <_>
          7 14 4 3 2.</_>
        <_>
          11 17 4 3 2.</_></rects>
      <tilted>0</tilted></_>
    <_>
      <rects>
        <_>
          7 15 2 2 -1.</_>
        <_>
          7 16 2 1 2.</_></rects>
      <tilted>0</tilted></_>
    <_>
      <rects>
        <_>
          7 15 8 6 -1.</_>
        <_>
          7 15 4 3 2.</_>
        <_>
          11 18 4 3 2.</_></rects>
      <tilted>0</tilted></_>
    <_>
      <rects>
        <_>
          7 15 8 3 -1.</_>
        <_>
          7 16 8 1 3.</_></rects>
      <tilted>0</tilted></_>
    <_>
      <rects>
        <_>
          7 19 9 4 -1.</_>
        <_>
          7 21 9 2 2.</_></rects>
      <tilted>0</tilted></_>
    <_>
      <rects>
        <_>
          8 0 7 4 -1.</_>
        <_>
          8 2 7 2 2.</_></rects>
      <tilted>0</tilted></_>
    <_>
      <rects>
        <_>
          8 6 4 4 -1.</_>
        <_>
          8 6 2 2 2.</_>
        <_>
          10 8 2 2 2.</_></rects>
      <tilted>0</tilted></_>
    <_>
      <rects>
        <_>
          8 7 6 2 -1.</_>
        <_>
          10 7 2 2 3.</_></rects>
      <tilted>0</tilted></_>
    <_>
      <rects>
        <_>
          8 7 6 4 -1.</_>
        <_>
          10 7 2 4 3.</_></rects>
      <tilted>0</tilted></_>
    <_>
      <rects>
        <_>
          8 8 4 2 -1.</_>
        <_>
          10 8 2 2 2.</_></rects>
      <tilted>0</tilted></_>
    <_>
      <rects>
        <_>
          8 8 6 2 -1.</_>
        <_>
          10 8 2 2 3.</_></rects>
      <tilted>0</tilted></_>
    <_>
      <rects>
        <_>
          8 8 5 16 -1.</_>
        <_>
          8 16 5 8 2.</_></rects>
      <tilted>0</tilted></_>
    <_>
      <rects>
        <_>
          8 8 9 15 -1.</_>
        <_>
          8 13 9 5 3.</_></rects>
      <tilted>0</tilted></_>
    <_>
      <rects>
        <_>
          8 10 3 2 -1.</_>
        <_>
          8 11 3 1 2.</_></rects>
      <tilted>0</tilted></_>
    <_>
      <rects>
        <_>
          8 14 1 3 -1.</_>
        <_>
          8 15 1 1 3.</_></rects>
      <tilted>0</tilted></_>
    <_>
      <rects>
        <_>
          8 14 1 6 -1.</_>
        <_>
          8 16 1 2 3.</_></rects>
      <tilted>0</tilted></_>
    <_>
      <rects>
        <_>
          8 14 7 3 -1.</_>
        <_>
          8 15 7 1 3.</_></rects>
      <tilted>0</tilted></_>
    <_>
      <rects>
        <_>
          8 15 1 2 -1.</_>
        <_>
          8 16 1 1 2.</_></rects>
      <tilted>0</tilted></_>
    <_>
      <rects>
        <_>
          8 16 1 6 -1.</_>
        <_>
          8 18 1 2 3.</_></rects>
      <tilted>0</tilted></_>
    <_>
      <rects>
        <_>
          8 17 6 6 -1.</_>
        <_>
          8 19 6 2 3.</_></rects>
      <tilted>0</tilted></_>
    <_>
      <rects>
        <_>
          9 2 3 5 -1.</_>
        <_>
          10 2 1 5 3.</_></rects>
      <tilted>0</tilted></_>
    <_>
      <rects>
        <_>
          9 4 3 3 -1.</_>
        <_>
          10 4 1 3 3.</_></rects>
      <tilted>0</tilted></_>
    <_>
      <rects>
        <_>
          9 8 2 2 -1.</_>
        <_>
          10 8 1 2 2.</_></rects>
      <tilted>0</tilted></_>
    <_>
      <rects>
        <_>
          9 8 6 2 -1.</_>
        <_>
          12 8 3 2 2.</_></rects>
      <tilted>0</tilted></_>
    <_>
      <rects>
        <_>
          9 9 10 4 -1.</_>
        <_>
          9 11 10 2 2.</_></rects>
      <tilted>0</tilted></_>
    <_>
      <rects>
        <_>
          9 13 1 8 -1.</_>
        <_>
          9 17 1 4 2.</_></rects>
      <tilted>0</tilted></_>
    <_>
      <rects>
        <_>
          9 14 4 3 -1.</_>
        <_>
          9 15 4 1 3.</_></rects>
      <tilted>0</tilted></_>
    <_>
      <rects>
        <_>
          9 15 4 3 -1.</_>
        <_>
          9 16 4 1 3.</_></rects>
      <tilted>0</tilted></_>
    <_>
      <rects>
        <_>
          9 16 4 3 -1.</_>
        <_>
          9 17 4 1 3.</_></rects>
      <tilted>0</tilted></_>
    <_>
      <rects>
        <_>
          10 2 12 20 -1.</_>
        <_>
          16 2 6 20 2.</_></rects>
      <tilted>0</tilted></_>
    <_>
      <rects>
        <_>
          10 4 3 3 -1.</_>
        <_>
          11 4 1 3 3.</_></rects>
      <tilted>0</tilted></_>
    <_>
      <rects>
        <_>
          10 6 2 1 -1.</_>
        <_>
          11 6 1 1 2.</_></rects>
      <tilted>0</tilted></_>
    <_>
      <rects>
        <_>
          10 7 2 12 -1.</_>
        <_>
          10 13 2 6 2.</_></rects>
      <tilted>0</tilted></_>
    <_>
      <rects>
        <_>
          10 9 2 12 -1.</_>
        <_>
          10 13 2 4 3.</_></rects>
      <tilted>0</tilted></_>
    <_>
      <rects>
        <_>
          10 9 6 1 -1.</_>
        <_>
          13 9 3 1 2.</_></rects>
      <tilted>0</tilted></_>
    <_>
      <rects>
        <_>
          10 9 6 4 -1.</_>
        <_>
          10 9 3 2 2.</_>
        <_>
          13 11 3 2 2.</_></rects>
      <tilted>0</tilted></_>
    <_>
      <rects>
        <_>
          10 9 7 2 -1.</_>
        <_>
          10 10 7 1 2.</_></rects>
      <tilted>0</tilted></_>
    <_>
      <rects>
        <_>
          10 9 12 6 -1.</_>
        <_>
          10 11 12 2 3.</_></rects>
      <tilted>0</tilted></_>
    <_>
      <rects>
        <_>
          10 10 2 2 -1.</_>
        <_>
          10 11 2 1 2.</_></rects>
      <tilted>0</tilted></_>
    <_>
      <rects>
        <_>
          10 11 10 2 -1.</_>
        <_>
          10 11 5 1 2.</_>
        <_>
          15 12 5 1 2.</_></rects>
      <tilted>0</tilted></_>
    <_>
      <rects>
        <_>
          10 13 3 3 -1.</_>
        <_>
          10 14 3 1 3.</_></rects>
      <tilted>0</tilted></_>
    <_>
      <rects>
        <_>
          10 14 3 3 -1.</_>
        <_>
          10 15 3 1 3.</_></rects>
      <tilted>0</tilted></_>
    <_>
      <rects>
        <_>
          11 4 3 3 -1.</_>
        <_>
          12 4 1 3 3.</_></rects>
      <tilted>0</tilted></_>
    <_>
      <rects>
        <_>
          11 4 2 6 -1.</_>
        <_>
          11 4 1 3 2.</_>
        <_>
          12 7 1 3 2.</_></rects>
      <tilted>0</tilted></_>
    <_>
      <rects>
        <_>
          11 7 4 3 -1.</_>
        <_>
          13 7 2 3 2.</_></rects>
      <tilted>0</tilted></_>
    <_>
      <rects>
        <_>
          11 7 6 3 -1.</_>
        <_>
          13 7 2 3 3.</_></rects>
      <tilted>0</tilted></_>
    <_>
      <rects>
        <_>
          11 8 2 2 -1.</_>
        <_>
          12 8 1 2 2.</_></rects>
      <tilted>0</tilted></_>
    <_>
      <rects>
        <_>
          11 8 2 3 -1.</_>
        <_>
          12 8 1 3 2.</_></rects>
      <tilted>0</tilted></_>
    <_>
      <rects>
        <_>
          11 9 1 12 -1.</_>
        <_>
          11 13 1 4 3.</_></rects>
      <tilted>0</tilted></_>
    <_>
      <rects>
        <_>
          11 9 5 2 -1.</_>
        <_>
          11 10 5 1 2.</_></rects>
      <tilted>0</tilted></_>
    <_>
      <rects>
        <_>
          11 9 12 2 -1.</_>
        <_>
          11 9 6 1 2.</_>
        <_>
          17 10 6 1 2.</_></rects>
      <tilted>0</tilted></_>
    <_>
      <rects>
        <_>
          11 10 2 2 -1.</_>
        <_>
          11 11 2 1 2.</_></rects>
      <tilted>0</tilted></_>
    <_>
      <rects>
        <_>
          11 10 9 2 -1.</_>
        <_>
          11 11 9 1 2.</_></rects>
      <tilted>0</tilted></_>
    <_>
      <rects>
        <_>
          11 17 6 4 -1.</_>
        <_>
          11 17 3 2 2.</_>
        <_>
          14 19 3 2 2.</_></rects>
      <tilted>0</tilted></_>
    <_>
      <rects>
        <_>
          12 3 10 4 -1.</_>
        <_>
          17 3 5 4 2.</_></rects>
      <tilted>0</tilted></_>
    <_>
      <rects>
        <_>
          12 4 3 3 -1.</_>
        <_>
          13 4 1 3 3.</_></rects>
      <tilted>0</tilted></_>
    <_>
      <rects>
        <_>
          12 4 6 8 -1.</_>
        <_>
          12 4 3 4 2.</_>
        <_>
          15 8 3 4 2.</_></rects>
      <tilted>0</tilted></_>
    <_>
      <rects>
        <_>
          12 6 8 4 -1.</_>
        <_>
          12 6 4 2 2.</_>
        <_>
          16 8 4 2 2.</_></rects>
      <tilted>0</tilted></_>
    <_>
      <rects>
        <_>
          12 8 3 1 -1.</_>
        <_>
          13 8 1 1 3.</_></rects>
      <tilted>0</tilted></_>
    <_>
      <rects>
        <_>
          12 13 5 4 -1.</_>
        <_>
          12 15 5 2 2.</_></rects>
      <tilted>0</tilted></_>
    <_>
      <rects>
        <_>
          12 14 1 2 -1.</_>
        <_>
          12 15 1 1 2.</_></rects>
      <tilted>0</tilted></_>
    <_>
      <rects>
        <_>
          12 14 6 8 -1.</_>
        <_>
          12 14 3 4 2.</_>
        <_>
          15 18 3 4 2.</_></rects>
      <tilted>0</tilted></_>
    <_>
      <rects>
        <_>
          12 19 3 4 -1.</_>
        <_>
          12 21 3 2 2.</_></rects>
      <tilted>0</tilted></_>
    <_>
      <rects>
        <_>
          13 8 4 12 -1.</_>
        <_>
          13 12 4 4 3.</_></rects>
      <tilted>0</tilted></_>
    <_>
      <rects>
        <_>
          13 10 3 6 -1.</_>
        <_>
          13 12 3 2 3.</_></rects>
      <tilted>0</tilted></_>
    <_>
      <rects>
        <_>
          13 13 2 1 -1.</_>
        <_>
          14 13 1 1 2.</_></rects>
      <tilted>0</tilted></_>
    <_>
      <rects>
        <_>
          13 14 1 3 -1.</_>
        <_>
          13 15 1 1 3.</_></rects>
      <tilted>0</tilted></_>
    <_>
      <rects>
        <_>
          13 14 1 6 -1.</_>
        <_>
          13 16 1 2 3.</_></rects>
      <tilted>0</tilted></_>
    <_>
      <rects>
        <_>
          13 14 2 6 -1.</_>
        <_>
          13 16 2 2 3.</_></rects>
      <tilted>0</tilted></_>
    <_>
      <rects>
        <_>
          13 15 2 2 -1.</_>
        <_>
          13 16 2 1 2.</_></rects>
      <tilted>0</tilted></_>
    <_>
      <rects>
        <_>
          13 15 4 2 -1.</_>
        <_>
          13 16 4 1 2.</_></rects>
      <tilted>0</tilted></_>
    <_>
      <rects>
        <_>
          13 16 2 6 -1.</_>
        <_>
          13 18 2 2 3.</_></rects>
      <tilted>0</tilted></_>
    <_>
      <rects>
        <_>
          13 16 4 4 -1.</_>
        <_>
          13 16 2 2 2.</_>
        <_>
          15 18 2 2 2.</_></rects>
      <tilted>0</tilted></_>
    <_>
      <rects>
        <_>
          13 17 4 2 -1.</_>
        <_>
          13 17 2 1 2.</_>
        <_>
          15 18 2 1 2.</_></rects>
      <tilted>0</tilted></_>
    <_>
      <rects>
        <_>
          14 0 10 20 -1.</_>
        <_>
          19 0 5 20 2.</_></rects>
      <tilted>0</tilted></_>
    <_>
      <rects>
        <_>
          14 2 8 17 -1.</_>
        <_>
          18 2 4 17 2.</_></rects>
      <tilted>0</tilted></_>
    <_>
      <rects>
        <_>
          14 7 2 6 -1.</_>
        <_>
          14 7 1 3 2.</_>
        <_>
          15 10 1 3 2.</_></rects>
      <tilted>0</tilted></_>
    <_>
      <rects>
        <_>
          14 7 10 6 -1.</_>
        <_>
          14 9 10 2 3.</_></rects>
      <tilted>0</tilted></_>
    <_>
      <rects>
        <_>
          14 8 2 6 -1.</_>
        <_>
          14 11 2 3 2.</_></rects>
      <tilted>0</tilted></_>
    <_>
      <rects>
        <_>
          14 8 3 3 -1.</_>
        <_>
          14 9 3 1 3.</_></rects>
      <tilted>0</tilted></_>
    <_>
      <rects>
        <_>
          14 9 6 4 -1.</_>
        <_>
          14 9 3 2 2.</_>
        <_>
          17 11 3 2 2.</_></rects>
      <tilted>0</tilted></_>
    <_>
      <rects>
        <_>
          14 11 2 1 -1.</_>
        <_>
          15 11 1 1 2.</_></rects>
      <tilted>0</tilted></_>
    <_>
      <rects>
        <_>
          14 14 5 3 -1.</_>
        <_>
          14 15 5 1 3.</_></rects>
      <tilted>0</tilted></_>
    <_>
      <rects>
        <_>
          14 15 4 3 -1.</_>
        <_>
          14 16 4 1 3.</_></rects>
      <tilted>0</tilted></_>
    <_>
      <rects>
        <_>
          14 17 2 2 -1.</_>
        <_>
          14 17 1 1 2.</_>
        <_>
          15 18 1 1 2.</_></rects>
      <tilted>0</tilted></_>
    <_>
      <rects>
        <_>
          15 3 6 16 -1.</_>
        <_>
          18 3 3 16 2.</_></rects>
      <tilted>0</tilted></_>
    <_>
      <rects>
        <_>
          15 3 8 15 -1.</_>
        <_>
          19 3 4 15 2.</_></rects>
      <tilted>0</tilted></_>
    <_>
      <rects>
        <_>
          15 6 8 6 -1.</_>
        <_>
          15 8 8 2 3.</_></rects>
      <tilted>0</tilted></_>
    <_>
      <rects>
        <_>
          15 9 4 4 -1.</_>
        <_>
          15 9 2 2 2.</_>
        <_>
          17 11 2 2 2.</_></rects>
      <tilted>0</tilted></_>
    <_>
      <rects>
        <_>
          15 13 1 2 -1.</_>
        <_>
          15 14 1 1 2.</_></rects>
      <tilted>0</tilted></_>
    <_>
      <rects>
        <_>
          15 13 3 3 -1.</_>
        <_>
          15 14 3 1 3.</_></rects>
      <tilted>0</tilted></_>
    <_>
      <rects>
        <_>
          15 14 2 3 -1.</_>
        <_>
          15 15 2 1 3.</_></rects>
      <tilted>0</tilted></_>
    <_>
      <rects>
        <_>
          15 14 3 3 -1.</_>
        <_>
          15 15 3 1 3.</_></rects>
      <tilted>0</tilted></_>
    <_>
      <rects>
        <_>
          16 0 8 22 -1.</_>
        <_>
          20 0 4 22 2.</_></rects>
      <tilted>0</tilted></_>
    <_>
      <rects>
        <_>
          16 0 8 23 -1.</_>
        <_>
          20 0 4 23 2.</_></rects>
      <tilted>0</tilted></_>
    <_>
      <rects>
        <_>
          16 9 2 6 -1.</_>
        <_>
          16 9 1 3 2.</_>
        <_>
          17 12 1 3 2.</_></rects>
      <tilted>0</tilted></_>
    <_>
      <rects>
        <_>
          16 14 3 3 -1.</_>
        <_>
          16 15 3 1 3.</_></rects>
      <tilted>0</tilted></_>
    <_>
      <rects>
        <_>
          16 15 3 3 -1.</_>
        <_>
          16 16 3 1 3.</_></rects>
      <tilted>0</tilted></_>
    <_>
      <rects>
        <_>
          17 11 2 3 -1.</_>
        <_>
          17 12 2 1 3.</_></rects>
      <tilted>0</tilted></_>
    <_>
      <rects>
        <_>
          18 7 3 6 -1.</_>
        <_>
          18 9 3 2 3.</_></rects>
      <tilted>0</tilted></_>
    <_>
      <rects>
        <_>
          19 8 5 3 -1.</_>
        <_>
          19 9 5 1 3.</_></rects>
      <tilted>0</tilted></_></features></cascade>
</opencv_storage>
