<?xml version="1.0"?>
<opencv_storage>
<stage6>
  <maxWeakCount>10</maxWeakCount>
  <stageThreshold>-1.3177905082702637e+00</stageThreshold>
  <weakClassifiers>
    <_>
      <internalNodes>
        0 -1 15869 2.4800506234169006e-01</internalNodes>
      <leafValues>
        -2.0289435982704163e-01 7.9134732484817505e-01</leafValues></_>
    <_>
      <internalNodes>
        0 -1 31296 -6.0881664976477623e-03</internalNodes>
      <leafValues>
        5.1168608665466309e-01 -5.1893508434295654e-01</leafValues></_>
    <_>
      <internalNodes>
        0 -1 143023 -1.2056196283083409e-05</internalNodes>
      <leafValues>
        3.4918251633644104e-01 -6.1860668659210205e-01</leafValues></_>
    <_>
      <internalNodes>
        0 -1 76930 -2.8620159719139338e-03</internalNodes>
      <leafValues>
        2.6078274846076965e-01 -6.9161140918731689e-01</leafValues></_>
    <_>
      <internalNodes>
        0 -1 133289 -2.3461336968466640e-04</internalNodes>
      <leafValues>
        3.0868631601333618e-01 -5.5056232213973999e-01</leafValues></_>
    <_>
      <internalNodes>
        0 -1 112025 1.2596322449098807e-05</internalNodes>
      <leafValues>
        -8.1223332881927490e-01 1.9161935150623322e-01</leafValues></_>
    <_>
      <internalNodes>
        0 -1 80479 5.5353750940412283e-04</internalNodes>
      <leafValues>
        -4.5003402233123779e-01 3.4209617972373962e-01</leafValues></_>
    <_>
      <internalNodes>
        0 -1 118625 -1.3712435247725807e-05</internalNodes>
      <leafValues>
        2.0829914510250092e-01 -5.7885885238647461e-01</leafValues></_>
    <_>
      <internalNodes>
        0 -1 133078 2.2025420330464840e-03</internalNodes>
      <leafValues>
        1.6813591122627258e-01 -7.5356304645538330e-01</leafValues></_>
    <_>
      <internalNodes>
        0 -1 151290 9.4370672013610601e-04</internalNodes>
      <leafValues>
        1.7403760552406311e-01 -6.6215831041336060e-01</leafValues></_></weakClassifiers></stage6>
</opencv_storage>
