<?xml version="1.0"?>
<opencv_storage>
<stage7>
  <maxWeakCount>10</maxWeakCount>
  <stageThreshold>-1.2229928970336914e+00</stageThreshold>
  <weakClassifiers>
    <_>
      <internalNodes>
        0 -1 136897 -3.5201548598706722e-03</internalNodes>
      <leafValues>
        6.7350095510482788e-01 -4.2145922780036926e-01</leafValues></_>
    <_>
      <internalNodes>
        0 -1 71313 1.6035545617341995e-02</internalNodes>
      <leafValues>
        -4.2554923892021179e-01 5.5957812070846558e-01</leafValues></_>
    <_>
      <internalNodes>
        0 -1 80441 -5.3930571302771568e-03</internalNodes>
      <leafValues>
        3.9951413869857788e-01 -5.2023887634277344e-01</leafValues></_>
    <_>
      <internalNodes>
        0 -1 76391 9.5426291227340698e-03</internalNodes>
      <leafValues>
        -7.5152456760406494e-01 2.4571353197097778e-01</leafValues></_>
    <_>
      <internalNodes>
        0 -1 140885 -5.5066004395484924e-02</internalNodes>
      <leafValues>
        6.9322806596755981e-01 -2.7538818120956421e-01</leafValues></_>
    <_>
      <internalNodes>
        0 -1 124679 -3.4579710336402059e-04</internalNodes>
      <leafValues>
        2.7724298834800720e-01 -5.5267679691314697e-01</leafValues></_>
    <_>
      <internalNodes>
        0 -1 133003 -2.5716659365571104e-05</internalNodes>
      <leafValues>
        2.2900074720382690e-01 -5.8217030763626099e-01</leafValues></_>
    <_>
      <internalNodes>
        0 -1 8390 2.0267791114747524e-03</internalNodes>
      <leafValues>
        -5.8286595344543457e-01 1.8672026693820953e-01</leafValues></_>
    <_>
      <internalNodes>
        0 -1 153893 -4.8212087713181973e-03</internalNodes>
      <leafValues>
        -7.7438980340957642e-01 1.4230869710445404e-01</leafValues></_>
    <_>
      <internalNodes>
        0 -1 103170 1.2523597106337547e-03</internalNodes>
      <leafValues>
        -4.6462878584861755e-01 2.4606128036975861e-01</leafValues></_></weakClassifiers></stage7>
</opencv_storage>
