<?xml version="1.0"?>
<opencv_storage>
<stage10>
  <maxWeakCount>16</maxWeakCount>
  <stageThreshold>-1.1256524324417114e+00</stageThreshold>
  <weakClassifiers>
    <_>
      <internalNodes>
        0 -1 85779 -1.5345220454037189e-03</internalNodes>
      <leafValues>
        6.0729736089706421e-01 -3.3394411206245422e-01</leafValues></_>
    <_>
      <internalNodes>
        0 -1 15830 1.6427007317543030e-01</internalNodes>
      <leafValues>
        -2.9028090834617615e-01 6.2643539905548096e-01</leafValues></_>
    <_>
      <internalNodes>
        0 -1 111524 -3.0631436966359615e-03</internalNodes>
      <leafValues>
        2.8101462125778198e-01 -6.2582123279571533e-01</leafValues></_>
    <_>
      <internalNodes>
        0 -1 97287 4.1783601045608521e-03</internalNodes>
      <leafValues>
        -3.3050349354743958e-01 4.8598951101303101e-01</leafValues></_>
    <_>
      <internalNodes>
        0 -1 86730 3.9744225796312094e-04</internalNodes>
      <leafValues>
        -6.2071406841278076e-01 1.7205539345741272e-01</leafValues></_>
    <_>
      <internalNodes>
        0 -1 127345 -1.5431845095008612e-03</internalNodes>
      <leafValues>
        2.4521113932132721e-01 -4.7777926921844482e-01</leafValues></_>
    <_>
      <internalNodes>
        0 -1 143258 3.5977619700133801e-04</internalNodes>
      <leafValues>
        1.8731161952018738e-01 -6.2675213813781738e-01</leafValues></_>
    <_>
      <internalNodes>
        0 -1 118773 9.8115869332104921e-04</internalNodes>
      <leafValues>
        -6.0825973749160767e-01 1.5161132812500000e-01</leafValues></_>
    <_>
      <internalNodes>
        0 -1 110147 3.1792591325938702e-03</internalNodes>
      <leafValues>
        1.6657184064388275e-01 -5.8431243896484375e-01</leafValues></_>
    <_>
      <internalNodes>
        0 -1 78931 -5.3700894117355347e-02</internalNodes>
      <leafValues>
        -7.2053277492523193e-01 1.3340196013450623e-01</leafValues></_>
    <_>
      <internalNodes>
        0 -1 113343 1.9798339344561100e-03</internalNodes>
      <leafValues>
        1.1082326620817184e-01 -7.3719072341918945e-01</leafValues></_>
    <_>
      <internalNodes>
        0 -1 68615 -2.4460294298478402e-05</internalNodes>
      <leafValues>
        1.8092551827430725e-01 -4.7432217001914978e-01</leafValues></_>
    <_>
      <internalNodes>
        0 -1 135427 -4.2514415690675378e-04</internalNodes>
      <leafValues>
        -5.8244812488555908e-01 1.2400603294372559e-01</leafValues></_>
    <_>
      <internalNodes>
        0 -1 129767 -3.1872137915343046e-03</internalNodes>
      <leafValues>
        -5.8103698492050171e-01 1.4589257538318634e-01</leafValues></_>
    <_>
      <internalNodes>
        0 -1 95290 2.3625297471880913e-03</internalNodes>
      <leafValues>
        1.1969389021396637e-01 -6.1267542839050293e-01</leafValues></_>
    <_>
      <internalNodes>
        0 -1 69853 2.6456673367647454e-05</internalNodes>
      <leafValues>
        -3.9535003900527954e-01 2.0419341325759888e-01</leafValues></_></weakClassifiers></stage10>
</opencv_storage>
