<?xml version="1.0"?>
<opencv_storage>
<stage1>
  <maxWeakCount>6</maxWeakCount>
  <stageThreshold>-2.5796964168548584e+00</stageThreshold>
  <weakClassifiers>
    <_>
      <internalNodes>
        0 -1 86369 8.0934129655361176e-03</internalNodes>
      <leafValues>
        -8.2479000091552734e-01 5.9903430938720703e-01</leafValues></_>
    <_>
      <internalNodes>
        0 -1 76715 -6.9875186309218407e-03</internalNodes>
      <leafValues>
        4.8941892385482788e-01 -7.9243910312652588e-01</leafValues></_>
    <_>
      <internalNodes>
        0 -1 17583 6.6346317529678345e-02</internalNodes>
      <leafValues>
        -5.0083434581756592e-01 7.5169962644577026e-01</leafValues></_>
    <_>
      <internalNodes>
        0 -1 66583 1.2071840465068817e-02</internalNodes>
      <leafValues>
        -8.6013370752334595e-01 3.9630353450775146e-01</leafValues></_>
    <_>
      <internalNodes>
        0 -1 118253 -8.1489142030477524e-04</internalNodes>
      <leafValues>
        5.0722795724868774e-01 -4.9258807301521301e-01</leafValues></_>
    <_>
      <internalNodes>
        0 -1 70442 1.3905691448599100e-03</internalNodes>
      <leafValues>
        -3.9076921343803406e-01 4.8008918762207031e-01</leafValues></_></weakClassifiers></stage1>
</opencv_storage>
