<?xml version="1.0"?>
<opencv_storage>
<stage4>
  <maxWeakCount>10</maxWeakCount>
  <stageThreshold>-2.2646808624267578e+00</stageThreshold>
  <weakClassifiers>
    <_>
      <internalNodes>
        0 -1 134891 -8.1553354859352112e-02</internalNodes>
      <leafValues>
        5.6348294019699097e-01 -6.4957845211029053e-01</leafValues></_>
    <_>
      <internalNodes>
        0 -1 86275 2.6018754579126835e-03</internalNodes>
      <leafValues>
        -7.8023201227188110e-01 3.7221795320510864e-01</leafValues></_>
    <_>
      <internalNodes>
        0 -1 81277 1.3068975880742073e-02</internalNodes>
      <leafValues>
        -4.9394461512565613e-01 4.7748017311096191e-01</leafValues></_>
    <_>
      <internalNodes>
        0 -1 111524 -1.7876042984426022e-03</internalNodes>
      <leafValues>
        3.0231025815010071e-01 -7.1187901496887207e-01</leafValues></_>
    <_>
      <internalNodes>
        0 -1 85138 -2.0470527932047844e-02</internalNodes>
      <leafValues>
        3.0642735958099365e-01 -6.2074458599090576e-01</leafValues></_>
    <_>
      <internalNodes>
        0 -1 80434 -3.8531962782144547e-03</internalNodes>
      <leafValues>
        3.4550002217292786e-01 -5.2724868059158325e-01</leafValues></_>
    <_>
      <internalNodes>
        0 -1 132792 -3.8833785220049322e-04</internalNodes>
      <leafValues>
        2.9466891288757324e-01 -5.7695317268371582e-01</leafValues></_>
    <_>
      <internalNodes>
        0 -1 94277 1.1135911336168647e-03</internalNodes>
      <leafValues>
        -6.3679969310760498e-01 1.4430987834930420e-01</leafValues></_>
    <_>
      <internalNodes>
        0 -1 111775 3.8614980876445770e-03</internalNodes>
      <leafValues>
        -6.6013240814208984e-01 1.7988488078117371e-01</leafValues></_>
    <_>
      <internalNodes>
        0 -1 144305 1.0688665509223938e-01</internalNodes>
      <leafValues>
        -1.6965630650520325e-01 7.3491567373275757e-01</leafValues></_></weakClassifiers></stage4>
</opencv_storage>
