<?xml version="1.0"?>
<opencv_storage>
<stage3>
  <maxWeakCount>8</maxWeakCount>
  <stageThreshold>-2.3089225292205811e+00</stageThreshold>
  <weakClassifiers>
    <_>
      <internalNodes>
        0 -1 2632 3.0321812629699707e-01</internalNodes>
      <leafValues>
        -6.9279247522354126e-01 7.5120514631271362e-01</leafValues></_>
    <_>
      <internalNodes>
        0 -1 137193 -4.4865021482110023e-03</internalNodes>
      <leafValues>
        4.6173629164695740e-01 -7.0417702198028564e-01</leafValues></_>
    <_>
      <internalNodes>
        0 -1 94766 1.9013924757018685e-03</internalNodes>
      <leafValues>
        -7.4637562036514282e-01 3.2838690280914307e-01</leafValues></_>
    <_>
      <internalNodes>
        0 -1 33741 4.1453260928392410e-03</internalNodes>
      <leafValues>
        -7.9887354373931885e-01 2.8943997621536255e-01</leafValues></_>
    <_>
      <internalNodes>
        0 -1 88565 -1.2588308891281486e-04</internalNodes>
      <leafValues>
        2.9000148177146912e-01 -6.1045593023300171e-01</leafValues></_>
    <_>
      <internalNodes>
        0 -1 81286 4.1102282702922821e-02</internalNodes>
      <leafValues>
        -4.0921086072921753e-01 4.2447939515113831e-01</leafValues></_>
    <_>
      <internalNodes>
        0 -1 119243 3.7447520298883319e-05</internalNodes>
      <leafValues>
        -7.6333725452423096e-01 1.8509273231029510e-01</leafValues></_>
    <_>
      <internalNodes>
        0 -1 117926 -1.8990744138136506e-03</internalNodes>
      <leafValues>
        2.5322410464286804e-01 -5.7074123620986938e-01</leafValues></_></weakClassifiers></stage3>
</opencv_storage>
