<?xml version="1.0"?>
<opencv_storage>
<stage5>
  <maxWeakCount>12</maxWeakCount>
  <stageThreshold>-2.2247500419616699e+00</stageThreshold>
  <weakClassifiers>
    <_>
      <internalNodes>
        0 -1 66580 -1.3478668406605721e-02</internalNodes>
      <leafValues>
        2.4349203705787659e-01 -7.8981310129165649e-01</leafValues></_>
    <_>
      <internalNodes>
        0 -1 16727 1.0265898704528809e-01</internalNodes>
      <leafValues>
        -4.9666526913642883e-01 5.7559216022491455e-01</leafValues></_>
    <_>
      <internalNodes>
        0 -1 66597 3.3601913601160049e-02</internalNodes>
      <leafValues>
        -7.8169578313827515e-01 2.7662435173988342e-01</leafValues></_>
    <_>
      <internalNodes>
        0 -1 86369 5.3487783297896385e-03</internalNodes>
      <leafValues>
        -6.1743938922882080e-01 3.2156714797019958e-01</leafValues></_>
    <_>
      <internalNodes>
        0 -1 98004 5.9479000046849251e-03</internalNodes>
      <leafValues>
        -5.1540631055831909e-01 3.2247120141983032e-01</leafValues></_>
    <_>
      <internalNodes>
        0 -1 131377 4.9477480351924896e-03</internalNodes>
      <leafValues>
        -7.3410910367965698e-01 2.1412996947765350e-01</leafValues></_>
    <_>
      <internalNodes>
        0 -1 50224 3.4409239888191223e-02</internalNodes>
      <leafValues>
        -3.4164410829544067e-01 3.9974370598793030e-01</leafValues></_>
    <_>
      <internalNodes>
        0 -1 76878 1.3940527569502592e-03</internalNodes>
      <leafValues>
        -6.6560769081115723e-01 1.7085842788219452e-01</leafValues></_>
    <_>
      <internalNodes>
        0 -1 138766 -2.7361744287190959e-05</internalNodes>
      <leafValues>
        2.1471659839153290e-01 -4.6619075536727905e-01</leafValues></_>
    <_>
      <internalNodes>
        0 -1 111493 8.9055709540843964e-03</internalNodes>
      <leafValues>
        1.6748571395874023e-01 -6.4352667331695557e-01</leafValues></_>
    <_>
      <internalNodes>
        0 -1 118822 3.1104646041058004e-05</internalNodes>
      <leafValues>
        -7.2062975168228149e-01 1.1736679822206497e-01</leafValues></_>
    <_>
      <internalNodes>
        0 -1 116539 -1.7276272410526872e-04</internalNodes>
      <leafValues>
        1.8463711440563202e-01 -4.4378107786178589e-01</leafValues></_></weakClassifiers></stage5>
</opencv_storage>
