<?xml version="1.0"?>
<opencv_storage>
<stage8>
  <maxWeakCount>17</maxWeakCount>
  <stageThreshold>-2.0940449237823486e+00</stageThreshold>
  <weakClassifiers>
    <_>
      <internalNodes>
        0 -1 15871 3.9080494642257690e-01</internalNodes>
      <leafValues>
        -6.2326461076736450e-01 4.2228633165359497e-01</leafValues></_>
    <_>
      <internalNodes>
        0 -1 76925 -4.3217116035521030e-03</internalNodes>
      <leafValues>
        2.4004897475242615e-01 -6.1357176303863525e-01</leafValues></_>
    <_>
      <internalNodes>
        0 -1 124449 5.4108644835650921e-03</internalNodes>
      <leafValues>
        -5.5736601352691650e-01 2.7951461076736450e-01</leafValues></_>
    <_>
      <internalNodes>
        0 -1 103942 8.4647824987769127e-03</internalNodes>
      <leafValues>
        -7.3939371109008789e-01 1.9684278964996338e-01</leafValues></_>
    <_>
      <internalNodes>
        0 -1 78672 -2.8835082048317418e-05</internalNodes>
      <leafValues>
        2.0024114847183228e-01 -5.7813775539398193e-01</leafValues></_>
    <_>
      <internalNodes>
        0 -1 76984 3.1478428281843662e-03</internalNodes>
      <leafValues>
        1.9043150544166565e-01 -6.4441972970962524e-01</leafValues></_>
    <_>
      <internalNodes>
        0 -1 89535 -8.1569589674472809e-03</internalNodes>
      <leafValues>
        2.6274511218070984e-01 -3.9642775058746338e-01</leafValues></_>
    <_>
      <internalNodes>
        0 -1 71366 2.7510315179824829e-02</internalNodes>
      <leafValues>
        -2.5204685330390930e-01 4.1300475597381592e-01</leafValues></_>
    <_>
      <internalNodes>
        0 -1 143095 1.8708647694438696e-03</internalNodes>
      <leafValues>
        1.2531651556491852e-01 -7.0860934257507324e-01</leafValues></_>
    <_>
      <internalNodes>
        0 -1 78012 -7.4438825249671936e-03</internalNodes>
      <leafValues>
        -6.7255026102066040e-01 1.3166321814060211e-01</leafValues></_>
    <_>
      <internalNodes>
        0 -1 88303 -7.9407659359276295e-04</internalNodes>
      <leafValues>
        1.8586339056491852e-01 -5.1950830221176147e-01</leafValues></_>
    <_>
      <internalNodes>
        0 -1 69612 -1.6593300970271230e-03</internalNodes>
      <leafValues>
        -6.1680316925048828e-01 1.4502605795860291e-01</leafValues></_>
    <_>
      <internalNodes>
        0 -1 143260 1.4830916188657284e-03</internalNodes>
      <leafValues>
        1.0284306854009628e-01 -7.0046818256378174e-01</leafValues></_>
    <_>
      <internalNodes>
        0 -1 133032 -3.0718791094841436e-05</internalNodes>
      <leafValues>
        1.6620671749114990e-01 -5.2395278215408325e-01</leafValues></_>
    <_>
      <internalNodes>
        0 -1 117928 -9.8090164829045534e-04</internalNodes>
      <leafValues>
        1.6609993577003479e-01 -4.9081993103027344e-01</leafValues></_>
    <_>
      <internalNodes>
        0 -1 57484 4.2651598341763020e-03</internalNodes>
      <leafValues>
        1.1050802469253540e-01 -6.1484658718109131e-01</leafValues></_>
    <_>
      <internalNodes>
        0 -1 86417 1.7824892711360008e-04</internalNodes>
      <leafValues>
        -6.9112950563430786e-01 9.8614707589149475e-02</leafValues></_></weakClassifiers></stage8>
</opencv_storage>
