<?xml version="1.0"?>
<opencv_storage>
<stage2>
  <maxWeakCount>6</maxWeakCount>
  <stageThreshold>-2.0078525543212891e+00</stageThreshold>
  <weakClassifiers>
    <_>
      <internalNodes>
        0 -1 15869 2.6520586013793945e-01</internalNodes>
      <leafValues>
        -7.2620624303817749e-01 7.3013716936111450e-01</leafValues></_>
    <_>
      <internalNodes>
        0 -1 94768 5.9718238189816475e-03</internalNodes>
      <leafValues>
        -7.5268077850341797e-01 5.3286546468734741e-01</leafValues></_>
    <_>
      <internalNodes>
        0 -1 67105 1.5917181968688965e-02</internalNodes>
      <leafValues>
        -8.2594358921051025e-01 3.8871875405311584e-01</leafValues></_>
    <_>
      <internalNodes>
        0 -1 81997 2.9121272265911102e-02</internalNodes>
      <leafValues>
        -5.7422357797622681e-01 4.4582426548004150e-01</leafValues></_>
    <_>
      <internalNodes>
        0 -1 133148 -1.4659101143479347e-03</internalNodes>
      <leafValues>
        5.1849836111068726e-01 -4.7390797734260559e-01</leafValues></_>
    <_>
      <internalNodes>
        0 -1 76930 -2.5775320827960968e-03</internalNodes>
      <leafValues>
        3.2506179809570313e-01 -5.2732145786285400e-01</leafValues></_></weakClassifiers></stage2>
</opencv_storage>
